<?xml version="1.0"?>
<opencv_storage>
<my_svm type_id="opencv-ml-svm">
  <svm_type>C_SVC</svm_type>
  <kernel><type>LINEAR</type></kernel>
  <C>7.</C>
  <term_criteria><epsilon>2.2204460492503131e-16</epsilon>
    <iterations>10000</iterations></term_criteria>
  <var_all>3000</var_all>
  <var_count>3000</var_count>
  <class_count>2</class_count>
  <class_labels type_id="opencv-matrix">
    <rows>1</rows>
    <cols>2</cols>
    <dt>i</dt>
    <data>
      0 1</data></class_labels>
  <sv_total>1</sv_total>
  <support_vectors>
    <_>
      -1.52551138e+00 -6.57850742e-01 -1.97431311e-01 7.66621754e-02
      -4.37297344e-01 -7.36762464e-01 -2.14028454e+00 -1.80574358e+00
      -1.97871029e+00 -1.55760431e+00 -6.51034415e-01 9.29390118e-02
      1.26698418e-02 -1.13352694e-01 4.92177159e-01 -7.26287901e-01
      6.19490266e-01 -6.40003920e-01 3.84262711e-01 3.08285296e-01
      2.75316209e-01 -3.75415534e-01 8.00298452e-01 7.66106769e-02
      -7.20859706e-01 -5.11486530e-01 3.32491577e-01 4.70235676e-01
      -1.57031510e-02 -6.74398422e-01 -2.21422538e-01 3.41207497e-02
      -2.27372718e+00 2.38639101e-01 3.89758110e-01 1.76146066e+00
      -6.97300553e-01 5.51684022e-01 3.51733327e-01 -3.21774185e-01
      2.26446807e-01 -2.68336326e-01 -9.70982969e-01 -6.49291098e-01
      -1.64105341e-01 -7.30559647e-01 -2.88450927e-01 4.59321588e-01
      6.83792770e-01 1.28540075e+00 -1.40494317e-01 -1.05374312e+00
      1.53284669e+00 -1.31677836e-01 4.90161665e-02 7.32258201e-01
      -6.31234273e-02 -1.47194672e+00 -3.91288072e-01 6.35998785e-01
      -6.64897740e-01 -1.28909171e-01 -8.23356807e-01 3.60030204e-01
      -5.90727106e-02 -2.40561724e+00 -1.12230279e-01 1.97699860e-01
      1.43477887e-01 1.05164826e-01 4.54202369e-02 -3.49294257e+00
      9.32778060e-01 7.01424062e-01 7.21229553e-01 6.55792117e-01
      -2.85513043e-01 7.12838257e-03 2.59397566e-01 1.51907668e-01
      1.41628659e+00 5.09071887e-01 3.82984012e-01 -1.67298526e-01
      -9.05223116e-02 -3.46320689e-01 -1.55106962e-01 -3.29669148e-01
      5.29176056e-01 3.51950467e-01 9.23675120e-01 -6.11328483e-01
      2.49117941e-01 4.30607736e-01 -8.86461377e-01 -6.84438348e-02
      2.95268744e-01 -4.07598436e-01 -2.34402403e-01 1.12531841e+00
      4.24399406e-01 7.50635192e-02 -2.25700760e+00 -4.39644545e-01
      4.99277711e-02 8.58880758e-01 8.17926705e-01 -2.76683038e-03
      2.17862517e-01 -1.20626652e+00 2.94509113e-01 4.73547935e-01
      1.19694462e-02 -3.92713428e-01 3.18918675e-01 -9.46089864e-01
      6.43410683e-01 1.99885368e+00 -6.21587086e+00 -3.54267716e-01
      -6.43507391e-02 2.14991868e-01 -1.51060140e+00 2.66151428e-01
      -1.23518515e+00 1.87909931e-01 -5.15187904e-02 1.34868955e-04
      8.69759917e-01 7.73959756e-02 -1.97195435e+00 4.99269933e-01
      5.09312972e-02 2.62882765e-02 -2.40894660e-01 -5.73563874e-01
      8.61544684e-02 -1.44875303e-01 -6.32583261e-01 3.38786334e-01
      -9.14892554e-01 4.33719426e-01 -1.47626317e+00 -2.80295350e-02
      -1.62834287e+00 -6.51922703e-01 -2.16254294e-01 8.51226270e-01
      -7.54360676e-01 -9.27921772e-01 1.24481909e-01 -1.05679727e+00
      1.76145375e-01 5.42623878e-01 1.55544907e-01 1.50597647e-01
      -3.50662693e-03 6.38790369e-01 -2.30586362e+00 -3.79311889e-01
      -1.10045147e+00 8.11588585e-01 -4.72372860e-01 1.80160910e-01
      4.69824765e-03 7.65112713e-02 -3.96919921e-02 -3.60127836e-01
      -1.92436054e-01 1.69362128e-01 3.74179512e-01 -6.40226007e-01
      3.74651551e-01 2.27622651e-02 -1.80311656e+00 5.53958714e-01
      1.69421714e-02 4.11584049e-01 -5.54640472e-01 -4.92584854e-01
      -9.24400687e-01 -1.87302840e+00 1.56467497e-01 -1.81096375e+00
      -1.37964070e-01 -1.49454451e+00 -1.40071101e-02 -1.42678547e+00
      1.01768203e-01 1.18597761e-01 5.70570290e-01 -1.53721440e+00
      3.50593805e-01 -1.08243895e+00 -7.44823873e-01 -1.01612282e+00
      2.70384878e-01 -2.97149062e-01 -4.34618294e-01 6.55226231e-01
      -1.13912427e+00 -8.31901729e-02 -1.82632089e+00 -5.93442880e-02
      7.59015501e-01 -2.99581265e+00 -1.18810010e+00 -3.08584794e-02
      -3.47268909e-01 -5.03383577e-03 4.32016820e-01 2.08072042e+00
      5.40684044e-01 1.72899270e+00 3.20739537e-01 -1.06916988e+00
      6.26792192e-01 7.64285401e-02 -1.30072385e-01 5.14322162e-01
      -1.07431829e+00 6.68632627e-01 -3.40533435e-01 -3.91231942e+00
      1.10167229e+00 -1.92299783e-01 -1.94195318e+00 -7.23700598e-02
      9.90189910e-01 -6.61415905e-02 2.00191402e+00 7.60154188e-01
      8.41943547e-02 -1.45929545e-01 4.90019433e-02 8.11830282e-01
      -4.99637611e-02 6.78914487e-02 2.20843013e-02 1.85495064e-01
      2.44042888e-01 -2.14671040e+00 -3.86955738e-01 -1.62110937e+00
      1.99258178e-01 -9.57171619e-01 -1.43513009e-01 -1.20079033e-01
      -1.19318038e-01 -2.06522509e-01 -1.20975935e+00 7.05786765e-01
      -1.84801206e-01 -8.26488614e-01 -1.61363292e+00 3.47841948e-01
      1.11798561e+00 5.30375600e-01 1.14405930e-01 9.26721394e-02
      3.49964559e-01 1.71774137e+00 -1.39566079e-01 -2.12326020e-01
      -8.99351314e-02 -8.48881751e-02 -2.75003046e-01 -6.02133214e-01
      -3.89193326e-01 -1.97532713e-01 -1.11755645e-02 2.24356264e-01
      1.21010423e+00 -3.20253186e-02 -1.70458782e+00 1.62603930e-01
      7.70097077e-01 3.22803050e-01 -3.17516886e-02 -1.76434195e+00
      2.04221994e-01 -1.08253920e+00 8.62449884e-01 -1.12485242e+00
      -2.71986151e+00 1.41647661e+00 -4.91994172e-01 6.91073686e-02
      -1.03158839e-01 -4.60012674e-01 2.76501894e-01 2.17777833e-01
      1.01383045e-01 -6.68978766e-02 8.60702455e-01 -2.06053093e-01
      1.48119569e-01 -1.64408505e+00 -4.58725512e-01 1.06784105e-01
      -2.36835957e-01 -1.73228234e-01 3.64542454e-01 8.75311792e-01
      -9.70333144e-02 -9.92628753e-01 1.43118456e-01 2.31715813e-01
      -1.38424253e+00 6.81766391e-01 -6.44420087e-01 1.68700680e-01
      2.03528646e-02 -9.80626702e-01 -1.14954985e-03 -4.81495112e-01
      6.94188178e-01 -5.72052360e-01 3.00917804e-01 1.61848351e-01
      4.31498408e-01 -5.86171329e-01 -9.36884463e-01 -1.44442124e-02
      -2.85782933e-01 -1.70432385e-02 1.31117296e+00 -1.81485641e+00
      -1.24625206e-01 -1.42493978e-01 5.33327699e-01 -2.17486814e-01
      1.98523123e-02 1.50004461e-01 -2.36094654e-01 -7.36712039e-01
      3.65001035e+00 1.20845032e+00 2.46073365e+00 -3.10107875e+00
      1.83238357e-01 1.14472821e-01 8.40059459e-01 1.19152233e-01
      -2.17402458e+00 -5.50438702e-01 -7.29220390e-01 -4.09146190e-01
      -4.77388352e-01 3.97184759e-01 -3.72994709e+00 -2.06132829e-01
      -4.95224893e-02 -4.42382383e+00 -3.05831647e+00 3.78578864e-02
      6.64678067e-02 3.17699969e-01 -9.11479771e-01 1.43907592e-01
      -7.42953420e-01 -2.13039219e-01 -1.29780698e+00 -6.55774027e-02
      1.37123004e-01 1.00977767e+00 -2.29362458e-01 -4.99852933e-02
      -6.93335906e-02 -2.10058713e+00 -9.30740163e-02 2.00452551e-01
      -1.87774897e-01 1.54272377e+00 3.27350467e-01 7.35737607e-02
      -6.16991483e-02 1.73539057e-01 -6.93595529e-01 -6.91258013e-01
      6.05787039e-01 4.47122812e-01 4.35327500e-01 2.80071974e-01
      5.41467294e-02 2.25786090e-01 -5.22445023e-01 4.51168448e-01
      -2.16237679e-01 1.06446967e-01 2.10803556e+00 6.43116474e-01
      -1.24861382e-01 4.96956229e-01 9.14958358e-01 4.26631002e-03
      2.72670388e-01 -8.83331299e-01 -1.73597425e-01 -8.23993742e-01
      -4.48988378e-02 2.40968555e-01 2.30577718e-02 -2.25976586e-01
      1.54334512e-02 -1.70058727e+00 1.29731335e-02 -6.77803904e-02
      2.60191053e-01 -3.60248446e-01 -1.08775117e-01 6.36373758e-01
      -2.92114586e-01 -1.20669794e+00 1.67851484e+00 -4.86842692e-01
      -9.36360240e-01 4.09496009e-01 1.11252367e+00 -1.77420795e+00
      -4.36969921e-02 -3.04267645e+00 3.33964080e-01 -9.88698542e-01
      -6.78090513e-01 1.34261578e-01 -1.39546549e+00 4.79730815e-01
      1.91752277e-02 5.19035578e-01 -1.42018765e-01 1.58161521e-01
      -1.91997528e+00 -7.75907457e-01 -3.86209264e-02 1.10205986e-01
      3.90561700e-01 5.74960768e-01 1.89244658e-01 -1.43038094e-01
      -3.52462173e-01 -2.31312180e+00 -9.52890366e-02 2.75306851e-01
      -5.94270587e-01 -2.72880465e-01 8.17159861e-02 -6.39089823e-01
      1.11393398e-02 6.63264930e-01 4.89392370e-01 -7.92082965e-01
      -1.34404922e+00 3.72500755e-02 1.18656442e-01 6.93445086e-01
      -6.38951436e-02 -1.01605463e+00 -3.95193875e-01 5.50788045e-01
      -3.06180686e-01 -2.69614190e-01 6.39827847e-01 -5.18216074e-01
      7.62411356e-01 -5.85168719e-01 8.15969825e-01 -2.23882008e+00
      -6.35636151e-01 -1.51467156e+00 1.08307147e+00 -1.91156697e+00
      -2.04373881e-01 8.13243911e-03 4.46897656e-01 -1.73378721e-01
      9.07902643e-02 -4.11514759e-01 -2.97339582e+00 1.31250858e-01
      -5.18693268e-01 9.02818739e-02 1.14061765e-01 1.80308774e-01
      1.31767243e-01 1.18131697e+00 -6.63940012e-01 4.15048338e-02
      2.34576121e-01 -9.55140352e-01 -2.79407549e+00 -1.15622282e-01
      4.08964515e-01 -6.68885291e-01 -1.08866000e+00 6.40740812e-01
      3.59253049e-01 7.78919160e-02 -1.65489167e-01 1.36501282e-01
      1.76763669e-01 3.67605865e-01 1.36905521e-01 1.13416576e+00
      8.22653353e-01 6.68655485e-02 1.02694070e+00 1.48256585e-01
      1.84091732e-01 2.69821793e-01 -4.48690444e-01 1.53633263e-02
      8.62036049e-01 -1.10369122e+00 4.14845608e-02 4.64554690e-02
      6.56724349e-02 -7.07461119e-01 1.33176672e+00 1.72537029e-01
      -7.60992896e-03 -5.85701652e-02 -7.06761599e-01 -2.30420661e+00
      6.44057631e-01 -5.95426202e-01 -2.31668973e+00 7.99685866e-02
      -1.00814438e+00 -1.06933475e+00 -9.32622492e-01 1.52560249e-01
      -1.23257768e+00 9.54151079e-02 7.63613522e-01 -8.79354835e-01
      -3.06993675e+00 -4.34828699e-01 1.51364477e-02 -7.49935806e-01
      2.99109012e-01 1.28255546e-01 4.89614666e-01 3.82499665e-01
      -1.82770208e-01 -2.23279309e+00 -1.58313501e+00 -6.36565268e-01
      -1.10076869e+00 -3.46805543e-01 -3.61568004e-01 3.32689844e-02
      -5.77753127e-01 3.84577215e-01 2.31722742e-01 2.63633460e-01
      8.50978255e-01 -7.05743432e-01 -6.34790719e-01 1.34710455e-03
      -8.62328522e-03 -1.11752637e-02 8.77597481e-02 4.94247340e-02
      7.29151964e-01 3.61011340e-03 -1.16780353e+00 -2.02045202e+00
      -2.35888809e-01 2.67857257e-02 2.41020769e-02 -3.57310206e-01
      3.36305857e-01 6.35944545e-01 -1.68322563e-01 1.56431496e-01
      4.94336218e-01 -3.37777042e+00 -4.75236893e+00 2.36208029e-02
      -4.82068968e+00 -1.23648334e+00 -7.88061202e-01 -3.42197299e-01
      -1.67083040e-01 3.00311614e-02 4.53932360e-02 9.50173512e-02
      -3.15188199e-01 -1.72032081e-02 -9.12300199e-02 -7.73149550e-01
      1.41989306e-01 -5.97750247e-01 1.40589774e-01 -5.19399464e-01
      4.44777101e-01 1.31251678e-01 1.91353559e-02 3.63465190e-01
      8.00860226e-02 3.86645705e-01 -1.50969970e+00 1.83220297e-01
      -4.24898297e-01 -5.99269748e-01 -3.39617133e-02 5.03626168e-01
      5.24356902e-01 -2.73494725e-03 8.65284353e-02 2.87435681e-01
      -1.54277146e-01 4.34962183e-01 -4.19497639e-01 -4.16299254e-01
      8.11075568e-01 3.32231224e-01 -9.02207717e-02 -7.44166613e-01
      1.18765511e-01 1.34679228e-02 1.28687680e+00 1.29850268e-01
      -1.47972941e-01 -7.64009655e-02 -3.22285630e-02 -2.57501185e-01
      -4.45393771e-01 -5.01855277e-03 -5.20125180e-02 4.08640802e-01
      -3.96052420e-01 -2.06124997e+00 -8.52416635e-01 -4.44458306e-01
      -3.88384680e-03 1.69902593e-01 -1.58563942e-01 -2.97748521e-02
      4.61572737e-01 -2.11244732e-01 2.92572916e-01 7.08552897e-02
      2.49820516e-01 -2.24874571e-01 1.62186897e+00 -7.06039965e-01
      -3.71569276e-01 -3.42089385e-02 -2.23693252e-01 6.45005226e-01
      6.69640064e-01 -3.00356913e+00 -5.82515657e-01 -1.67276368e-01
      1.35455683e-01 2.56955481e+00 -2.69989282e-01 -1.56707120e+00
      5.67072868e-01 8.34617764e-02 -2.65226532e-02 3.67893189e-01
      -1.90473557e-01 7.88939372e-02 9.72399265e-02 -8.55550706e-01
      1.79330274e-01 1.19949019e+00 -4.15277332e-01 -2.64037579e-01
      1.83189020e-01 4.81802085e-03 3.94224003e-02 6.29178107e-01
      1.80036083e-01 3.67659181e-01 -4.96420041e-02 3.58290106e-01
      -7.09152669e-02 -1.98043853e-01 4.11776081e-02 1.37376308e-01
      -2.20372748e+00 -4.28504273e-02 -1.73322454e-01 -5.55416584e-01
      -2.52780288e-01 5.95286749e-02 -1.84663892e+00 -1.78876773e-01
      -7.13644624e-01 -6.77530989e-02 -1.11740269e-01 -3.17593247e-01
      -8.06790665e-02 -1.40736353e+00 2.21443295e-01 3.39229442e-02
      4.84019637e-01 -4.29962844e-01 -2.34440848e-01 -1.92932272e+00
      -1.19545780e-01 4.72930133e-01 -6.82758614e-02 5.95397651e-01
      2.33162032e-03 2.53000766e-01 5.27392887e-03 1.96666121e-01
      2.01325729e-01 3.54441583e-01 -1.17633665e+00 -8.68209124e-01
      -2.47806501e+00 -7.00667083e-01 -4.27187729e+00 4.04026538e-01
      4.37037081e-01 5.17910719e-01 2.24409461e-01 1.51810288e+00
      -3.63452721e+00 -1.58767402e+00 4.02720235e-02 4.21572477e-02
      1.80251014e+00 -1.25463581e+00 4.92210865e-01 -4.94143486e-01
      -9.19480547e-02 -4.20161635e-01 -9.70259029e-03 -1.55426490e+00
      -2.72324122e-02 1.75696909e-01 -1.76224858e-01 -9.54929948e-01
      1.15779209e+00 2.26453111e-01 -5.70488423e-02 4.56914037e-01
      -4.41066653e-01 -8.18558395e-01 -2.24843025e-02 -3.41140580e+00
      -2.70623922e-01 -1.35844743e+00 -1.34165943e+00 -9.08285618e-01
      5.96036375e-01 3.61094363e-02 -2.82150817e+00 -1.70107377e+00
      2.47429937e-01 -7.52031147e-01 6.90467749e-03 -1.22727275e+00
      -6.39714837e-01 -1.07556367e+00 4.07616794e-02 8.83924514e-02
      -2.60199070e+00 1.62170857e-01 7.11897016e-03 -1.99669719e-01
      3.33993440e-03 -7.16385245e-01 -1.28582835e+00 -1.62685955e+00
      -3.69629830e-01 -4.14057493e-01 4.08486605e-01 -6.25193417e-01
      1.32913315e+00 3.15017581e-01 -5.67087352e-01 -6.77722752e-01
      1.93006173e-01 -2.55173236e-01 1.32824808e-01 9.59572420e-02
      -1.71196610e-02 -4.30471122e-01 -4.77570117e-01 5.75112164e-01
      -1.31916106e+00 1.46941513e-01 1.34722769e-01 -3.43430825e-02
      7.70108819e-01 2.24307962e-02 -7.64600396e-01 -8.03397238e-01
      7.18460158e-02 -6.18767738e-01 -4.85365354e-02 2.39925683e-01
      -2.90229172e-01 -2.32216072e+00 1.88253045e-01 -4.72052485e-01
      -3.53644222e-01 4.48141724e-01 -1.61350906e-01 -5.18130660e-01
      4.14717823e-01 -1.02490582e-01 -1.61177349e+00 -1.04923584e-02
      -2.07792953e-01 1.45701393e-02 3.31986040e-01 1.48609459e+00
      -1.02705050e+00 -2.28906870e+00 -5.40986538e-01 1.54256597e-01
      -7.19932541e-02 8.62844009e-03 1.10620491e-01 1.92805678e-01
      5.60689747e-01 -2.64887465e-03 -6.83718204e-01 8.77601802e-01
      -5.08198023e-01 -3.04936790e+00 4.33456264e-02 5.61689623e-02
      -1.77755594e-01 1.48638268e-03 7.33536005e-01 -6.12452105e-02
      -9.46540460e-02 -1.55319512e+00 2.75416344e-01 -4.63734269e-02
      3.85886431e-02 -9.59504098e-02 9.18778107e-02 6.59769028e-02
      5.37487626e-01 -5.11360824e-01 -2.95086261e-02 -5.77951893e-02
      -1.57804465e+00 1.46807742e+00 2.95779794e-01 -1.08319438e+00
      2.93770316e-03 -1.25323272e+00 1.35952711e-01 -6.12162054e-02
      1.10476956e-01 -1.76736104e+00 1.64743841e-01 -8.18214417e-02
      1.15995541e-01 9.09182727e-01 3.75039876e-01 9.60199684e-02
      8.81323814e-01 1.06181645e+00 5.51391207e-02 1.08986104e+00
      -1.03276467e+00 7.58400336e-02 -8.90530646e-01 -1.75409302e-01
      2.65054163e-02 -5.26518285e-01 -5.53091526e-01 2.07119837e-01
      2.43414100e-02 -3.82786728e-02 -6.99346185e-01 4.35670428e-02
      1.64709166e-01 8.60805623e-03 3.80858958e-01 2.07048804e-01
      3.32136303e-02 2.11614043e-01 -2.25773335e+00 -3.75859469e-01
      -1.97855011e-01 5.07898152e-01 9.46121156e-01 1.78102069e-02
      -1.46135688e+00 -2.07360411e+00 -9.21943560e-02 -3.29933596e+00
      7.61965036e-01 -2.04519916e+00 -1.63969398e+00 -3.68183398e+00
      -1.45736322e-01 -5.66220462e-01 2.67339833e-02 9.39212441e-02
      6.38993159e-02 -1.14810622e+00 -1.35943428e-01 -4.65771437e-01
      -9.62879896e-01 1.95779666e-01 8.30516219e-01 -1.85386527e+00
      5.21084340e-03 8.99538994e-02 -9.30299938e-01 5.48543117e-04
      6.46378025e-02 4.23275352e-01 -3.34517807e-01 -1.48051977e+00
      6.68551803e-01 -5.99114001e-01 -7.01775491e-01 1.29258502e+00
      1.34628192e-01 1.97910118e+00 -1.42670482e-01 5.18412530e-01
      8.14215004e-01 -3.72482985e-01 6.35537952e-02 1.99517608e-01
      -1.06511399e-01 2.26411387e-01 -4.86547351e-01 -6.65238723e-02
      9.00157034e-01 1.62524104e-01 2.55600244e-01 1.34895995e-01
      2.02384382e-01 8.44786227e-01 2.18458474e-02 -1.32967556e+00
      3.49804729e-01 8.13871861e-01 -1.38008609e-01 -1.25588703e+00
      3.49374294e-01 -2.00784668e-01 -9.97941718e-02 1.16221242e-01
      -2.17022926e-01 3.43106166e-02 -9.27002668e-01 7.10471213e-01
      5.42901531e-02 -5.71068287e-01 2.16638446e-01 9.40858901e-01
      1.01243258e+00 -1.54284060e+00 -1.33029178e-01 6.30417839e-02
      -1.07447922e+00 3.72554781e-03 -3.54655743e-01 -1.21886790e+00
      2.49921739e-01 3.71985555e-01 1.15528643e-01 -1.14482093e+00
      -1.42073059e+00 8.24415982e-02 3.77484858e-01 1.47063229e-02
      -1.54496896e+00 -5.63457251e-01 -1.81297028e+00 2.20444605e-01
      1.24430232e-01 -1.35450923e+00 4.58299279e-01 -3.98409873e-01
      1.16775773e-01 -9.24083948e-01 -2.36214072e-01 3.82189006e-01
      1.57716253e-03 -1.21030498e+00 -8.70572090e-01 -1.77722287e+00
      -1.41624272e+00 -3.69588703e-01 -1.13557959e-02 1.52206993e+00
      1.61490574e-01 -2.26101446e+00 -4.16661173e-01 -1.21507978e+00
      -7.94090271e-01 2.94450045e-01 1.96353421e-01 1.43705055e-01
      -3.03974330e-01 -4.99887854e-01 -2.99268484e+00 -4.21227634e-01
      -2.57495737e+00 2.26116292e-02 -2.22143903e-01 1.08868562e-01
      6.03979588e-01 3.30486596e-01 7.55859435e-01 -5.18640697e-01
      -6.07736260e-02 -1.74159512e-01 -1.09329426e+00 -1.01013207e+00
      -1.99962330e+00 -2.07283926e+00 -7.80023396e-01 1.86454505e-02
      -1.38019001e+00 -1.88117683e+00 1.30822510e-01 7.12886691e-01
      1.85239315e-02 5.31903505e-01 4.54071552e-01 -1.38796926e-01
      4.07737494e-02 1.70389771e+00 1.41535625e-01 1.98283240e-01
      -3.57065164e-02 4.22845483e-01 7.36453950e-01 1.55577093e-01
      -7.59114185e-03 -1.59482971e-01 1.04323757e+00 7.46028423e-02
      1.51091337e+00 -2.48351663e-01 -9.28313732e-01 -1.16281545e+00
      7.59309232e-01 4.69909102e-01 -1.67275918e+00 -2.03602791e+00
      8.76846313e-01 -3.07751417e-01 -5.33344671e-02 -5.09424329e-01
      -5.66295795e-02 -5.41052103e-01 2.67525971e-01 8.32421780e-01
      7.61534348e-02 -5.76373279e-01 -3.41181196e-02 2.23603535e+00
      7.54185677e-01 -1.42498106e-01 7.47285187e-01 -1.93627179e+00
      1.58644512e-01 -2.62823433e-01 -7.42038488e-02 -3.19119722e-01
      -7.05815554e-01 1.56385928e-01 -7.33096758e-03 2.68999547e-01
      7.68795907e-02 9.91046190e-01 -5.02089923e-03 5.62213302e-01
      1.06808674e+00 4.12232190e-01 1.11259542e-01 3.57079990e-02
      -2.78728700e+00 -1.03126872e+00 7.69126043e-02 5.08086085e-01
      5.06253578e-02 -1.05924761e+00 1.37683600e-01 -2.03136039e+00
      -3.64081681e-01 -8.52786064e-01 1.81534007e-01 -7.83688903e-01
      -2.50054955e-01 7.52110541e-01 -4.51414645e-01 -1.15215862e+00
      -1.76206732e+00 2.07778692e-01 -1.56032577e-01 3.05651724e-01
      3.39398652e-01 1.00022340e+00 1.05571246e+00 8.69221091e-02
      2.86459357e-01 3.56056690e-01 -1.31162882e+00 -9.21715498e-01
      -3.00403297e-01 -5.54236472e-01 1.32441536e-01 -2.22355413e+00
      -7.78313726e-02 -2.06528401e+00 -9.55905095e-02 3.23081166e-01
      -6.78827837e-02 5.02627380e-02 5.15175223e-01 -1.21906412e+00
      7.02874899e-01 -1.12362236e-01 1.25306398e-01 -3.93909037e-01
      3.62718195e-01 -1.70714271e+00 2.09800050e-01 3.63298178e-01
      -2.03754783e+00 1.44461542e-02 -3.33826579e-02 -2.06169271e+00
      2.56723538e-02 3.00395042e-02 -1.01007152e+00 -2.44003404e-02
      4.31851327e-01 2.65621364e-01 4.97272890e-03 -2.46629238e-01
      1.01916395e-01 -5.98855913e-02 -5.04898548e-01 5.55402935e-01
      1.34944904e+00 4.59909588e-02 7.41960049e-01 3.62951696e-01
      -2.93338532e-03 1.93256140e+00 2.03082845e-01 -5.87005198e-01
      -7.30403513e-02 1.67684227e-01 -2.14789584e-02 1.10651886e+00
      5.07535815e-01 1.19345948e-01 1.86494682e-02 -1.26727676e+00
      -1.20436621e+00 -1.78133681e-01 5.77771604e-01 4.53762770e-01
      1.72628260e+00 6.96502447e-01 1.29948795e-01 -1.10592410e-01
      1.71264157e-01 6.31733596e-01 8.62876922e-02 -5.76470375e-01
      3.50579143e-01 -4.67159367e+00 7.28077233e-01 3.94188195e-01
      1.19041353e-01 1.13358390e+00 -2.24830222e+00 -1.11460173e+00
      1.71050936e-01 7.29272962e-02 4.64342982e-01 -3.36520314e-01
      3.07038367e-01 7.28474021e-01 1.27814579e+00 -2.64635086e-01
      -2.98487842e-01 -6.73431993e-01 -1.11249819e-01 9.46396440e-02
      1.42296150e-01 1.00930229e-01 -5.45663357e-01 -1.25438201e+00
      1.73924971e+00 -9.02071059e-01 4.30692792e-01 2.12406769e-01
      2.00813673e-02 -2.77176857e+00 -1.34966016e+00 5.71011603e-01
      4.54819769e-01 6.91917360e-01 -1.41321659e-01 -2.17699423e-01
      -2.13820517e-01 -2.33471140e-01 4.46188934e-02 -9.06264544e-01
      4.22266245e+00 -4.32232767e-01 1.29447365e+00 3.14862341e-01
      9.02309641e-03 -1.36625493e+00 -7.40767717e-01 1.40979135e+00
      3.78547877e-01 -1.01244652e+00 -1.56050634e+00 7.78640568e-01
      2.18300208e-01 6.45528734e-01 8.98299575e-01 -5.11327982e-01
      8.63843322e-01 -1.83242187e-01 -1.95184278e+00 -2.38843411e-01
      9.45093557e-02 -9.31796610e-01 1.10502737e-02 -1.03056803e-02
      4.91358005e-02 -8.74811053e-01 3.67286871e-03 -4.89729196e-01
      -1.19169903e+00 5.81837833e-01 2.96769962e-02 6.85939014e-01
      6.43694494e-03 -2.22673770e-02 -3.84619141e+00 6.48734272e-02
      -6.96973860e-01 -1.05836399e-01 -5.65330207e-01 -8.51918638e-01
      2.99559069e+00 4.70311910e-01 1.28021276e+00 -3.49995899e+00
      -6.56593800e-01 -7.53349811e-02 -2.65166670e-01 3.20962131e-01
      2.43696377e-01 -1.32396519e+00 1.10653317e+00 8.03910255e-01
      -4.25870508e-01 6.10527575e-01 6.69058502e-01 9.67384279e-02
      7.20946342e-02 3.28645036e-02 -4.51864034e-01 -1.41834974e-01
      -1.45155042e-01 1.52539760e-01 1.24246335e+00 2.97227889e-01
      -5.52975237e-01 -2.00233534e-02 -2.51919068e-02 -1.60122406e+00
      5.10508537e-01 -1.46256387e+00 -3.37467343e-01 4.18849558e-01
      2.19404042e-01 -8.27909231e-01 -5.79729259e-01 8.66540730e-01
      7.60715842e-01 -1.77060759e+00 1.19100678e+00 1.96937602e-02
      4.13884699e-01 1.01318324e+00 -2.10373193e-01 -5.61349511e-01
      -5.60779452e-01 5.57582140e-01 4.88408804e-01 4.07039411e-02
      -1.11945367e+00 -9.21154380e-01 5.80780618e-02 1.14955354e+00
      5.17363667e-01 -3.25278139e+00 1.42750219e-01 -2.69885391e-01
      4.36818504e+00 6.19276725e-02 -7.14505389e-02 1.14664547e-01
      -8.11796486e-02 -5.24245501e-01 -6.26062229e-02 -1.90708077e+00
      1.50500789e-01 5.67457899e-02 -4.45144176e-01 -4.88534085e-02
      3.65442084e-03 -1.67324916e-02 -7.85445750e-01 2.32163477e+00
      -1.24414432e+00 1.17203444e-01 -2.27167201e+00 5.87891161e-01
      1.85541674e-01 -8.60965252e-02 -1.07730556e+00 1.31212035e-03
      8.37019160e-02 -1.16726467e-02 -1.70462847e-01 1.93374529e-01
      -3.22629571e-01 -9.72692132e-01 -1.07498586e+00 5.91557845e-02
      1.17198929e-01 2.30581425e-02 -4.21424001e-01 2.16388777e-01
      7.75344729e-01 -1.02231646e+00 -7.23719373e-02 8.07971284e-02
      -5.19296587e-01 3.66012380e-02 3.21595445e-02 7.21699774e-01
      3.15917246e-02 5.26392721e-02 1.22983083e-01 -1.84830248e-01
      2.08419450e-02 1.34881246e+00 1.36508748e-01 -3.87383193e-01
      -3.50384021e+00 2.98407763e-01 -7.26448536e-01 -5.44547200e-01
      1.29795742e+00 5.03580451e-01 5.40423729e-02 -1.98918128e+00
      1.12598717e+00 1.06613748e-01 1.37864009e-01 1.06053400e+00
      1.80374217e+00 2.07970381e-01 -1.00205436e-01 -1.19019055e+00
      -3.58090788e-01 -9.33656096e-01 7.28993490e-02 8.40883926e-02
      2.30853245e-01 -2.10446149e-01 -4.35097665e-01 -4.13835049e-01
      3.54388863e-01 -2.20405173e+00 -2.09178090e-01 6.07659042e-01
      1.90981165e-01 -7.88563490e-02 -4.51682135e-02 -9.80641961e-01
      -1.59817255e+00 -1.74971473e+00 -4.98534083e-01 1.96322292e-01
      -6.14950895e-01 2.37319529e-01 -3.67741659e-02 3.80759597e-01
      -1.77395180e-01 -1.75993979e-01 -5.75281799e-01 -1.05015707e+00
      3.05832654e-01 2.04882240e+00 8.03229213e-02 -1.35290638e-01
      -5.39033413e-01 4.14739139e-02 3.36755849e-02 -9.64952350e-01
      -1.11992121e+00 -1.28557515e+00 -1.32873547e+00 2.03630552e-02
      7.75655806e-01 -3.77581269e-01 -1.53572083e-01 -2.77187824e+00
      -2.52466291e-01 -3.93452644e-01 4.52320501e-02 -9.75297485e-03
      2.42360204e-01 1.22094691e-01 -8.15739259e-02 -1.42993701e+00
      -2.68392968e+00 5.94554722e-01 -1.12412858e+00 -5.13233304e-01
      8.96170661e-02 5.60503960e-01 -1.27170753e+00 -1.67350209e+00
      -3.57677519e-01 5.35236336e-02 -1.84020662e+00 -6.64259076e-01
      8.52339923e-01 1.52121440e-01 -1.89766240e+00 -7.42664635e-02
      -2.00161457e-01 4.01506275e-02 2.53078014e-01 4.27539468e-01
      -1.17638636e+00 -1.03854343e-01 1.15027952e+00 -1.99490225e+00
      -7.38396585e-01 7.10766137e-01 9.07274988e-03 -5.44239938e-01
      1.67587455e-02 -1.22120142e+00 6.63722157e-01 -9.41031814e-01
      -3.05806622e-02 1.23542726e+00 -4.63829458e-01 -1.10073328e+00
      4.28388417e-01 1.48326710e-01 -6.18076146e-01 8.26215386e-01
      -4.36026955e+00 -1.70706868e+00 1.93886146e-01 -1.40336156e-01
      -7.11379573e-02 -1.01142406e-01 -4.05662984e-01 3.62239778e-02
      9.53460157e-01 1.51542714e-02 2.38042865e-02 -1.22840382e-01
      -1.64140332e-02 5.51082075e-01 6.01699293e-01 1.03007399e-01
      1.18815124e+00 -1.56553909e-01 1.50449979e+00 5.05417764e-01
      -5.74093461e-01 -1.93541622e+00 -5.45020364e-02 -5.18089950e-01
      -1.11160767e+00 -2.65138149e-01 -5.44223702e-03 -3.42570037e-01
      9.93454754e-01 4.56830323e-01 -1.74876794e-01 -1.03065424e-01
      6.16141669e-02 -1.33898270e+00 9.57013488e-01 1.88177332e-01
      2.31178582e-01 -4.40557003e+00 2.62831807e-01 -1.36947703e+00
      -7.00629950e-01 7.06822947e-02 1.23865342e+00 9.22903895e-01
      -1.26225844e-01 4.28995453e-02 2.85558939e+00 -1.82907116e+00
      -1.52607664e-01 -8.56166799e-03 2.55004149e-02 2.34239906e-01
      2.22827941e-01 -5.80702946e-02 -2.80902591e-02 -6.01912200e-01
      2.69076794e-01 7.49302566e-01 -1.82274973e+00 -8.87002945e-01
      1.42900556e-01 8.52917373e-01 -1.46679189e-02 -1.12736917e+00
      -1.77470243e+00 -6.19748831e-01 -9.43703115e-01 3.03029954e-01
      3.43287140e-01 -5.94864905e-01 1.02272719e-01 -1.84074700e-01
      -4.86015797e+00 8.38588834e-01 2.48422138e-02 9.10530239e-02
      2.47265711e-01 -5.18217623e-01 -1.61852145e+00 -2.49453093e-04
      -2.23799586e-01 -4.81546044e-01 9.54478621e-01 1.02587485e+00
      7.46725276e-02 1.23028910e+00 -1.26577795e+00 2.15550518e+00
      2.17641759e+00 -1.90278172e-01 2.24006623e-02 -1.14799038e-01
      -1.95792630e-01 5.68030000e-01 -2.85149347e-02 -8.51058602e-01
      2.43925001e-03 -5.76689243e-02 -5.56638420e-01 -2.12596610e-01
      -1.65088141e+00 -7.75065005e-01 1.55967521e-02 4.13604647e-01
      1.14565514e-01 -1.02155633e-01 4.58652945e-03 3.16950376e-03
      -1.68257341e-01 -8.57084870e-01 -6.69221207e-02 1.98597297e-01
      6.19453378e-02 3.90528262e-01 1.08976424e-01 -2.99384832e-01
      -4.53866333e-01 9.67495322e-01 5.48055947e-01 -3.44719982e+00
      1.11434424e+00 2.30552000e-03 7.02822283e-02 -9.02794302e-01
      -1.89757490e+00 -6.12376988e-01 -8.06502178e-02 -3.69509518e-01
      5.36219664e-02 -3.06062579e-01 -4.10508823e+00 3.53709757e-01
      2.79667473e+00 1.34655848e-01 -4.13994312e-01 -6.98820472e-01
      5.75433485e-02 -1.28175497e+00 1.97185397e-01 -1.08727038e+00
      -7.61679262e-02 -1.47384810e+00 1.23940066e-01 1.28217682e-01
      -1.28435445e+00 1.34412599e+00 -3.88778925e-01 -4.02390957e+00
      -5.85756421e-01 1.02086449e+00 -1.04949713e+00 1.73691750e+00
      3.71387422e-01 4.99818623e-01 -2.44213313e-01 -1.92547941e+00
      4.65316735e-02 1.91461146e-01 -2.41112873e-01 -1.11903799e+00
      2.28569917e-02 -3.30402225e-01 2.91439146e-01 2.63551027e-01
      -1.03568721e+00 -1.24461675e+00 3.53902578e-01 -1.07788064e-01
      -1.64070857e+00 1.48652017e-01 -6.23610951e-02 -6.87101126e-01
      -7.56538630e-01 -5.28042173e+00 -4.61493172e-02 -7.63525590e-02
      5.81185669e-02 3.19606096e-01 -2.96329409e-01 -7.84536600e-01
      3.92640615e+00 -7.21044004e-01 -4.32660103e-01 -1.64759910e+00
      2.50544727e-01 1.76391453e-01 1.81812003e-01 2.10095391e-01
      6.22719586e-01 -7.32415318e-01 3.68187845e-01 4.25615370e-01
      5.01910821e-02 -2.88511562e+00 -1.70855224e-01 4.96693134e-01
      1.73812401e+00 5.92419840e-02 1.57245234e-01 -1.21566288e-01
      -2.18812490e+00 -2.71578121e+00 -1.85543334e+00 5.24972081e-01
      -1.72542012e+00 -1.03781871e-01 1.93565458e-01 -1.14494300e+00
      -1.47961438e+00 2.79672831e-01 -2.15208858e-01 -9.80834424e-01
      2.30725899e-01 -8.76156032e-01 -7.78129041e-01 -9.44135308e-01
      -5.22464454e-01 -1.07691610e+00 -3.22642237e-01 -3.84461075e-01
      -3.26932728e-01 -3.13267149e-02 2.72596776e-01 -5.50388992e-02
      -9.46932137e-01 4.13023904e-02 8.57167616e-02 -8.02267671e-01
      -1.05390608e-01 -2.94461418e-02 4.49500620e-01 8.38685215e-01
      7.22337514e-02 -4.98942971e-01 -1.56500749e-02 -1.01684558e+00
      -7.73241222e-01 1.83097318e-01 9.37546074e-01 4.41691764e-02
      -3.91749263e-01 8.05875301e-01 -9.25132573e-01 -8.83258656e-02
      2.21040040e-01 -6.14123642e-01 2.77728103e-02 3.42064887e-01
      2.35993767e+00 6.50756121e-01 -3.21868587e+00 -1.95900166e+00
      -1.00675672e-01 6.80436969e-01 -2.45871232e-03 -1.97087061e+00
      -1.91196179e+00 7.37432003e-01 -9.28569078e-01 9.21709120e-01
      -2.67880261e-01 -2.93627715e+00 -1.47571492e+00 4.23634231e-01
      -2.03492856e+00 2.67018192e-02 1.81321010e-01 3.36005747e-01
      7.37764299e-01 7.87069798e-01 -7.79569030e-01 3.69642556e-01
      -5.35386130e-02 -9.20511603e-01 2.24323416e+00 2.15571180e-01
      5.44635355e-01 4.08203043e-02 7.75804698e-01 -1.05991375e+00
      7.21008956e-01 -1.94507468e+00 4.98539321e-02 -2.53577185e+00
      2.98829824e-01 -1.05670345e+00 -1.90251660e+00 8.83946478e-01
      -9.49872360e-02 -1.12397656e-01 7.19590187e-01 4.03734893e-01
      -4.33067888e-01 6.45183623e-02 -2.88154125e-01 -1.38501361e-01
      -4.51681972e-01 -1.45915496e+00 -1.17326629e+00 5.17428434e-03
      -2.64788400e-02 -1.07204473e+00 -2.75529146e+00 8.98890972e-01
      2.46825069e-02 1.54615298e-01 1.52764082e-01 -1.64129734e+00
      -7.20410515e-03 2.85631657e-01 -1.86659962e-01 7.38524348e-02
      1.35383427e+00 8.82330611e-02 -3.42411548e-01 1.01120854e-02
      7.39933848e-01 -2.04307342e+00 -1.50654852e-01 -1.37320966e-01
      -1.22092724e+00 -6.32780433e-01 -5.51289260e-01 1.70761809e-01
      1.39639169e-01 -6.25901818e-01 -7.23164856e-01 -2.48645887e-01
      2.20280945e-01 2.28988677e-01 -2.56761998e-01 -1.87903321e+00
      1.07444465e-01 -1.06386542e-01 -4.12552834e+00 -1.45739067e+00
      -3.28486830e-01 -1.19430497e-01 2.54819930e-01 1.83978930e-01
      1.84852421e-01 -1.60528255e+00 3.46217304e-01 -7.41094649e-02
      -7.02128708e-01 -1.99837887e+00 -7.65266642e-02 1.70518570e-02
      7.26245940e-01 3.80945504e-01 4.42956001e-01 -1.63048947e+00
      4.40505445e-02 9.73758161e-01 -8.23181987e-01 1.46151519e+00
      1.68256700e-01 -6.56515121e-01 -3.01715970e-01 6.43958032e-01
      -1.70254791e+00 -1.36989701e+00 7.38035202e-01 6.58195138e-01
      1.96621835e-01 6.43462017e-02 -2.09458423e+00 -1.43898293e-01
      7.82924831e-01 9.81434137e-02 -8.51684451e-01 -4.67236221e-01
      -8.90571438e-03 -8.23177874e-01 -9.87781212e-02 2.59295911e-01
      3.01974463e+00 -1.03052139e-01 -1.03135139e-01 7.12666154e-01
      1.51739314e-01 1.62608790e+00 -6.63268507e-01 7.15581924e-02
      1.03766702e-01 6.68460429e-01 2.81670451e-01 1.35693982e-01
      -2.70113677e-01 -2.45944595e+00 -1.48176718e+00 -6.80729985e-01
      1.79482251e-01 -2.78321713e-01 -2.87752245e-02 2.77694315e-01
      -3.17068863e+00 9.60170984e-01 4.11172104e+00 6.18071795e-01
      -9.04343009e-01 9.44837630e-01 1.92430651e+00 -6.64885342e-02
      -1.91819310e-01 -4.85184968e-01 -6.34749174e-01 1.13798428e+00
      9.95567441e-02 -1.06688142e+00 3.90574843e-01 -7.67918050e-01
      2.57179946e-01 9.25990582e-01 -3.22725266e-01 -1.54271615e+00
      -4.12636328e+00 -1.25904429e+00 -2.76508540e-01 -1.52963147e-01
      -9.11107242e-01 -3.72041672e-01 2.56558001e-01 -1.86424279e+00
      -5.87410741e-02 -2.57529854e-03 8.08555663e-01 -3.39848220e-01
      3.45810503e-01 -2.89768052e+00 -3.21409345e+00 2.73923622e-03
      1.89237788e-01 6.48124456e-01 6.11669302e-01 -7.07312003e-02
      1.24847218e-01 -1.38065338e-01 3.53038192e-01 -3.43023157e+00
      3.87510806e-02 1.88372701e-01 -8.58517706e-01 8.83927345e-02
      -6.85354233e-01 -1.53655636e+00 4.82525945e-01 5.99016309e-01
      -1.40238062e-01 8.31068456e-02 9.26902115e-01 2.97739208e-02
      1.07095790e+00 3.19052823e-02 1.93464111e-05 -4.81295794e-01
      -1.64139986e+00 5.27279079e-03 8.61819386e-01 -2.61037163e-02
      2.18808264e-01 2.32900977e-01 -1.71489620e+00 -1.28217144e-02
      -1.59630001e-01 -2.80064940e+00 -5.06466389e-01 1.34660244e-01
      4.32371199e-02 -3.72747220e-02 5.86973906e-01 -1.40959755e-01
      7.60297626e-02 -8.20771232e-02 -2.52924748e-02 -1.43058658e-01
      1.10206068e+00 1.19404995e+00 5.66144884e-01 2.43392855e-01
      -1.87601581e-01 2.38517928e+00 -3.12880665e-01 8.95174667e-02
      -4.99256164e-01 -3.69265628e+00 5.85920773e-02 -3.38955307e+00
      -1.43560863e+00 2.02363953e-01 1.43429950e-01 5.86251058e-02
      -4.39227708e-02 -4.14652914e-01 -2.08272433e+00 2.46341586e+00
      5.74012041e-01 1.49743247e-03 1.15633458e-01 3.39922845e-01
      -5.89153022e-02 4.69285399e-01 7.07123876e-02 9.50970054e-02
      4.14794646e-02 4.58717048e-02 2.27157384e-01 2.97916606e-02
      1.74847841e-01 -8.11639547e-01 7.82801449e-01 2.65352821e+00
      -4.38418865e-01 -1.37896156e+00 -1.17515397e+00 -1.05588868e-01
      4.73513275e-01 -2.16948777e-01 5.96672529e-03 4.13647026e-01
      -1.19575667e+00 -2.44349033e-01 -2.08883572e+00 5.67714214e-01
      -3.21197778e-01 2.34968085e-02 -4.83762324e-01 6.43270552e-01
      -2.06681800e+00 -8.24095070e-01 1.74462378e-01 -1.44210148e+00
      -4.45789136e-02 2.34729424e-01 1.80075932e+00 -2.38919306e+00
      4.18538898e-01 1.40599221e-01 -6.29739940e-01 5.01632810e-01
      -8.35122287e-01 -1.57497609e+00 2.05245566e+00 2.12188795e-01
      6.10374510e-01 -1.99301422e+00 5.62848687e-01 1.84609711e+00
      4.94592667e-01 -1.41523242e+00 -1.80063260e+00 4.65749598e+00
      -5.72219312e-01 2.00304016e-01 -8.02349746e-01 1.35893777e-01
      6.09366477e-01 3.10805216e-02 1.08697641e+00 5.82201183e-01
      6.82805665e-03 -7.60537207e-01 5.34601789e-03 2.88080820e-03
      3.78639996e-01 7.50474185e-02 1.13887429e+00 4.94091868e-01
      -3.36743385e-01 5.35497308e-01 -1.66458213e+00 -1.08934402e+00
      -6.66949570e-01 -1.37696946e+00 5.20846732e-02 2.91693374e-03
      -9.33088183e-01 2.24105176e-02 -2.74128270e+00 1.14625484e-01
      -4.08532411e-01 -2.42567405e-01 -3.38428825e-01 6.22805893e-01
      -6.24571256e-02 -5.07735133e-01 -4.87762064e-01 6.37691557e-01
      -1.67984784e+00 -1.87731862e+00 7.69256115e-01 5.13002694e-01
      -2.11716485e+00 -3.57730776e-01 3.55496183e-02 -1.26340494e-01
      7.22183511e-02 -2.60775387e-01 -3.42275643e+00 -5.47163300e-02
      -8.43655050e-01 -8.73103291e-02 -1.29381824e+00 4.28037226e-01
      2.96617121e-01 -1.19315758e-01 -8.89208436e-01 1.36025488e-01
      2.86411405e-01 -2.03304243e+00 1.37058958e-01 5.19627571e-01
      -4.10279393e-01 1.17054999e-01 2.44004369e+00 -5.21271050e-01
      2.07830220e-01 -1.85063374e+00 -2.71727473e-01 -6.26018286e-01
      -1.94929764e-02 -1.10228300e-01 4.70200002e-01 2.52542868e-02
      -1.56318694e-01 -1.00586243e-01 -2.17587352e+00 -3.20277542e-01
      2.13127241e-01 -6.38150843e-03 1.40828058e-01 -9.31625128e-01
      1.34254381e-01 2.01526570e+00 2.74068087e-01 -2.48988256e-01
      1.92487873e-02 -1.95853353e+00 1.00965314e-01 -4.40545607e+00
      1.44703453e-02 -4.46342723e-03 -2.09615186e-01 -3.51051152e-01
      7.30354059e-03 6.69560790e-01 -2.88615847e+00 1.04217267e+00
      -4.13358986e-01 -6.03055174e-04 -7.87430227e-01 -4.20367986e-01
      -1.20096111e+00 1.26280352e-01 -1.06445253e+00 -4.89224531e-02
      1.16388571e+00 3.02276254e+00 -9.61287856e-01 -1.59686938e-01
      2.79021591e-01 3.15569967e-01 -8.50238025e-01 6.50071263e-01
      -2.51958489e-01 3.19469459e-02 2.81347841e-01 -8.29755306e-01
      -3.98427755e-01 1.83493961e-02 7.72693679e-02 9.42924261e-01
      1.55387938e+00 2.76525021e-02 -1.92626202e+00 -7.74414539e-01
      2.09291264e-01 2.15822998e-02 -2.34313178e+00 4.89145517e-01
      -2.43703976e-01 2.77381428e-02 8.54350068e-03 8.20350647e-02
      -4.22819710e+00 5.81278987e-02 8.13769475e-02 -2.41393968e-01
      4.84235555e-01 -4.64873284e-01 1.02547601e-01 9.78188753e-01
      -2.49167025e-01 -1.25096762e+00 6.91592634e-01 -2.15692312e-01
      -7.20104948e-02 -5.96113861e-01 2.00575903e-01 2.25074604e-01
      -3.07392091e-01 -1.01790798e+00 -4.67776895e-01 -5.96121609e-01
      -9.02113318e-01 1.24897882e-01 5.24223149e-01 -3.15250397e-01
      -1.62529871e-01 -2.40510607e+00 -8.54503453e-01 -3.20292294e-01
      6.60108685e-01 -8.25753212e-02 7.18861818e-01 -2.81819433e-01
      -1.56546593e-01 -5.25684416e-01 -5.85560322e-01 -3.16605896e-01
      -2.16008806e+00 1.25480488e-01 -1.54366243e+00 6.86882854e-01
      -2.25621819e+00 -2.40364030e-01 2.36142930e-02 -1.91218764e-01
      -1.08569515e+00 2.74377912e-01 -4.20761919e+00 3.26182395e-02
      8.98430571e-02 6.64414763e-02 -1.60195738e-01 -1.23054981e-01
      3.63608718e-01 -1.12407207e+00 -2.32218966e-01 -1.42744100e+00
      -1.50581408e+00 3.78718898e-02 -5.20021200e-01 -5.79522908e-01
      7.46420696e-02 7.23592043e-02 -1.58733055e-01 6.62554651e-02
      -1.46669328e+00 2.48619509e+00 8.10224295e-01 -2.89976090e-01
      3.46812084e-02 1.01882708e+00 -1.43313849e+00 9.98565197e-01
      4.19807732e-02 -1.95306933e+00 -2.40143228e+00 -4.56847095e+00
      -1.00698209e+00 -5.19000113e-01 3.75942469e-01 2.72774279e-01
      -1.74643600e+00 1.26128808e-01 6.23627976e-02 -1.34156849e-02
      -2.89015830e-01 -8.65118384e-01 -1.61780193e-02 1.29148737e-01
      -2.49798328e-01 -2.99688721e+00 -2.29223228e+00 -1.16336095e+00
      -4.95245382e-02 -8.17817569e-01 -5.30393958e-01 -8.04243803e-01
      -1.69401026e+00 -5.64876832e-02 -4.52913418e-02 -3.24238725e-02
      1.22974277e+00 2.22899348e-01 -9.12789762e-01 -1.45994282e+00
      7.21139908e-02 1.77162006e-01 3.85159254e-01 1.64671469e+00
      3.09476733e+00 -5.37682138e-02 -3.00926641e-02 9.13632959e-02
      -1.71619463e+00 -9.68907177e-01 2.47165948e-01 8.87790322e-01
      1.09963246e-01 2.14190915e-01 2.00848413e+00 5.21436810e-01
      2.30036545e+00 -2.17339784e-01 -4.18021679e+00 -1.95616167e-02
      -1.98604492e-03 5.32902544e-04 6.36627078e-01 2.34751090e-01
      2.31748819e-03 1.27169549e-01 -7.85789967e-01 1.42501503e-01
      -2.23155081e-01 -1.04108500e+00 5.85187366e-03 -4.58518445e-01
      2.59337783e-01 2.82703698e-01 -1.00251758e+00 2.20829800e-01
      -8.51306599e-03 -1.66868508e+00 -1.84792876e-01 -8.21180820e-01
      2.02755734e-01 2.25832030e-01 -1.29009619e-01 1.17422211e+00
      -4.22185570e-01 7.72444010e-02 -3.33304214e+00 4.99157608e-02
      -9.33395922e-02 -2.80958563e-01 -8.12563062e-01 1.64341480e-01
      6.46121621e-01 -1.18147779e+00 -3.86427104e-01 1.28231695e-04
      1.86519772e-01 -3.53341341e+00 8.98914158e-01 2.45479393e+00
      -4.64988291e-01 -4.13251877e-01 3.03122669e-01 4.60486412e+00
      3.25068533e-02 -3.83700818e-01 -3.92615724e+00 2.13958070e-01
      -1.62467718e+00 -2.73068190e+00 3.18644673e-01 2.54752088e+00
      -9.93867934e-01 3.10088921e+00 -3.13619375e-01 -1.67968762e+00
      -8.97912264e-01 -2.21826866e-01 1.85833648e-01 -1.64437085e-01
      2.91089993e-02 -6.11326210e-02 -1.49021239e-03 4.23951417e-01
      1.42717218e+00 -1.74571589e-01 -9.25421491e-02 -2.86829615e+00
      8.30221325e-02 1.06887066e+00 -8.93982649e-01 4.23917361e-02
      -2.60027742e+00 -6.58738971e-01 2.01471127e-03 3.34814154e-02
      -1.00181803e-01 -9.83417153e-01 -2.71400952e+00 2.71661300e-02
      -3.71300673e+00 -1.32964030e-01 -2.26145101e+00 3.14810514e-01
      1.00760460e-01 4.98355746e-01 -1.36718178e+00 -1.48807299e+00
      2.75053352e-01 -1.93135738e-01 -1.80587316e+00 -8.33933532e-01
      8.04423034e-01 -4.41698432e-01 -1.05553627e-01 3.62480015e-01
      2.55606562e-01 6.49959803e-01 -4.01975346e+00 7.72045314e-01
      5.90960635e-03 2.71797389e-01 -1.08613575e+00 7.59551644e-01
      5.30888438e-01 -3.28001904e+00 1.23466015e+00 -9.01687920e-01
      1.28285134e+00 2.67216396e+00 -6.94473743e-01 3.80384594e-01
      7.61698544e-01 -1.10505736e+00 6.15373850e-01 1.71351314e+00
      7.74124041e-02 -1.08021891e+00 4.07727212e-01 -2.62905431e+00
      -8.67590308e-02 -1.80655801e+00 2.40540788e-01 -3.35621572e+00
      2.02440824e-02 1.17450923e-01 -1.68961942e-01 1.28511161e-01
      -1.52964997e+00 2.23609757e+00 -8.81187022e-02 2.52965450e-01
      1.18161932e-01 1.16897836e-01 5.88819563e-01 -6.45166063e+00
      -1.14598846e+00 -7.20050931e-01 -1.70227385e+00 -3.47442359e-01
      -1.45856547e+00 -4.53314543e-01 -1.83927643e+00 -1.14976919e+00
      -3.74758410e+00 -9.23074596e-03 -3.61673504e-01 5.49902171e-02
      6.03373766e-01 -5.19326068e-02 -7.72329748e-01 -1.36783350e+00
      -1.65072644e+00 1.44123659e-01 -2.57210271e-03 1.96958673e+00
      -2.15058193e-01 3.95927966e-01 -1.22194262e-02 7.87809968e-01
      -1.27978057e-01 -2.92325854e+00 3.40246528e-01 1.16867051e-01
      1.52130830e+00 -3.48359019e-01 -1.01785846e-01 1.81700543e-01
      -3.00828695e+00 -6.50772035e-01 6.15034662e-02 -8.50945652e-01
      -3.16481137e+00 -5.25867820e-01 -6.27261066e+00 3.74795288e-01
      -1.47615135e-01 2.53840238e-01 3.48715693e-01 7.76480958e-02
      -1.07426250e+00 -2.92986006e-01 4.11059754e-03 -2.15597796e+00
      7.34115303e-01 1.83335471e+00 1.61409152e+00 1.20653221e-02
      -1.07598178e-01 -1.45751333e+00 1.85574844e-01 6.15178943e-01
      7.64479116e-02 1.50899363e+00 -2.03823626e-01 1.97862160e+00
      -8.44737434e+00 -1.47716320e+00 1.90078765e-01 1.15236662e-01
      -2.05254316e-01 1.24374998e+00 7.33667612e-02 -5.61311185e-01
      -1.09189975e+00 -1.47132647e+00 5.77695966e-02 1.43773305e+00
      5.54581285e-01 -2.05620360e+00 -4.92792390e-02 2.05542135e+00
      3.15339297e-01 -8.93633425e-01 5.36512315e-01 -9.71510112e-01
      -1.01499569e+00 -1.43143773e+00 1.92324910e-02 8.81954469e-03
      -9.10090432e-02 -1.35669911e+00 -4.13507044e-01 -6.69134855e-02
      -1.13792336e-02 -1.25456542e-01 -7.64336705e-01 -5.44826210e-01
      -5.35992384e-01 -2.53190547e-01 -9.05434862e-02 4.56156163e-03
      -3.20495993e-01 5.24422601e-02 -9.47266698e-01 -3.22949499e-01
      9.35451090e-02 4.12845373e-01 3.55787836e-02 -2.28088617e-01
      2.98046887e-01 2.17347562e-01 5.40638566e-01 -3.59334755e+00
      -4.63359915e-02 -7.06672430e-01 -1.34282410e+00 -1.25217631e-01
      -1.47218120e+00 -9.39453114e-03 -2.44531646e-01 2.32032493e-01
      -2.50645459e-01 3.21235955e-01 -3.29768991e+00 -1.06465614e+00
      -1.32588446e+00 -2.53370476e+00 -9.39282328e-02 -5.58512926e-01
      -8.30596924e-01 -2.24716723e-01 -1.67035902e+00 -2.23431158e+00
      6.65653497e-02 4.48430069e-02 3.02415434e-02 -2.65979320e-02
      2.55085230e+00 2.07798883e-01 2.19300166e-01 -2.74720609e-01
      4.71707284e-02 4.31138128e-01 1.60929298e+00 -4.53440040e-01
      6.65180445e-01 2.07348919e+00 -1.12604946e-01 -6.51295409e-02
      4.02284443e-01 1.09523982e-01 -6.20152533e-01 1.89825427e-02
      -9.42197919e-01 -2.04238772e+00 -2.25102520e+00 1.49443626e-01
      -1.13886440e+00 1.54481328e+00 2.56317019e-01 6.90940842e-02
      9.80413631e-02 2.95869589e+00 -4.53323841e-01 -1.33828241e-02
      -1.43609762e+00 8.19010735e-01 5.05700298e-02 -1.31583893e+00
      -7.71320820e-01 3.02227259e-01 6.15354121e-01 -3.04141641e+00
      2.30712354e-01 2.56035924e-01 -1.31743729e-01 1.28804846e-02
      9.58212733e-01 -2.72319341e+00 -2.59673309e+00 -1.79839775e-01
      -7.21084550e-02 5.14446437e-01 -1.84413958e+00 -2.01966763e+00
      -1.84565693e-01 -2.42326930e-02 -1.19764078e+00 -1.61993504e+00
      5.32401875e-02 -1.98089254e+00 -6.50036037e-01 -8.27211499e-01
      -5.31155884e-01 -8.54594350e-01 -5.07790232e+00 -2.12139770e-01
      4.47244406e-01 -8.16320062e-01 -1.42561460e+00 7.44730890e-01
      -1.53881347e+00 -1.12913825e-01 -1.42081928e+00 2.10557461e-01
      -5.80987811e-01 5.49256086e-01 -8.00090790e-01 -2.35025927e-01
      -1.08165169e+00 -2.76438892e-03 -4.69232887e-01 -2.09624134e-02
      5.02539098e-01 2.32580472e-02 -1.96262747e-02 6.72481731e-02
      -1.67042375e+00 6.48235157e-02 -5.10845184e-02 -4.02852678e+00
      3.24677110e-01 -6.04557335e-01 5.34594506e-02 -2.69032747e-01
      4.85414982e-01 3.39345746e-02 4.11301106e-01 4.77053165e-01
      1.15905058e+00 -9.57928777e-01 -3.04941267e-01 6.01643085e-01
      -6.12840176e-01 -9.11700428e-01 -2.35697985e-01 -3.84512663e+00
      6.82359517e-01 1.67233491e+00 -1.54452217e+00 -1.23706913e+00
      5.93660772e-02 3.46736461e-02 -3.75396430e-01 1.54574767e-01
      -4.59854957e-03 -1.91268432e+00 -7.13209033e-01 -5.93275309e-01
      -2.21635625e-02 1.80443615e-01 1.15766697e-01 3.72456551e-01
      -4.38287705e-02 2.67813385e-01 7.79953077e-02 5.70287824e-01
      -1.50826585e+00 8.76677483e-02 3.02760422e-01 -2.53767991e+00
      -8.63077343e-01 7.79990733e-01 -2.04425907e+00 2.81494200e-01
      3.23255241e-01 -2.24473961e-02 1.36897469e+00 -1.27801335e+00
      -2.56995976e-01 1.77425349e+00 2.10525727e+00 -2.70714700e-01
      -9.15782526e-02 -7.22236410e-02 1.19590558e-01 5.73227942e-01
      1.59202620e-01 -3.78489757e+00 4.67562675e-02 -3.50892007e-01
      3.48315120e-01 -7.98988521e-01 -3.42183971e+00 -6.73089921e-01
      6.61156625e-02 1.27393103e+00 1.64543509e-01 4.24294382e-01
      2.28957629e+00 3.30138183e+00 -1.25025153e+00 -1.09506619e+00
      -2.45857215e+00 3.25504631e-01 1.16609968e-01 1.96675897e-01
      1.33143604e+00 6.95947886e-01 2.57088512e-01 -4.31341231e-02
      -1.52050912e+00 2.71410763e-01 -2.82286219e-02 2.77578115e-01
      8.92326117e-01 -3.18150073e-01 3.09796071e+00 2.99236715e-01
      -1.20384740e-02 6.36179745e-01 -1.09037709e+00 -8.10875714e-01
      -3.51604676e+00 -2.63246346e+00 3.45647931e+00 1.48190558e-01
      -1.60954130e+00 5.44056237e-01 -2.22808331e-01 4.20672745e-01
      -2.73660451e-01 -2.04311180e+00 -9.63415861e-01 5.27914241e-02
      1.67839861e+00 -3.19461584e+00 1.75015360e-01 -3.11113596e-01
      5.08237854e-02 1.14700568e+00 2.67682802e-02 -1.90405488e+00
      -2.35651422e+00 2.83425122e-01 -5.53628445e-01 -1.04476535e+00
      -3.18763703e-02 -7.75863454e-02 -2.13595676e+00 2.29155913e-01
      -6.72026920e+00 1.46367876e-02 -3.23104918e-01 -4.98235255e-01
      3.76143783e-01 2.71106809e-01 -1.25539482e-01 2.39581257e-01
      1.30874169e+00 1.42622858e-01 -2.48163678e-02 -7.34206975e-01
      -4.85072136e+00 2.03846052e-01 1.45654869e+00 -6.91678166e-01
      1.42966902e+00 -3.81787270e-01 3.45178574e-01 -4.59452271e-02
      -2.37613964e+00 4.02699322e-01 -1.32419074e+00 1.17682528e+00
      -1.84950963e-01 9.00646746e-02 -2.70219254e+00 7.11014926e-01
      5.82340002e-01 7.86005929e-02 -2.19470382e+00 -2.11319661e+00
      1.43171117e-01 -1.06280139e-02 -1.56625164e+00 5.44755720e-02
      -1.24224913e+00 -1.01282291e-01 -7.23647165e+00 2.24419400e-01
      3.01426321e-01 1.67980492e+00 -2.16240481e-01 4.56093967e-01
      -4.08862650e-01 1.93217337e+00 -5.40794492e-01 4.75076228e-01
      1.52977824e-01 -1.95287257e-01 -1.08084649e-01 -5.32768667e-01
      -1.08327615e+00 -1.69685054e+00 -9.32040989e-01 -9.25328493e-01
      -7.55232513e-01 -1.95826447e+00 2.88421482e-01 -4.46546030e+00
      -1.18607700e+00 -7.35898390e-02 5.93421757e-01 -6.35229349e-01
      -1.99356124e-01 -2.14265078e-01 4.65147197e-01 -3.01602960e+00
      -1.67091000e+00 -1.80690691e-01 -2.11494613e+00 -4.89853954e+00
      4.56001729e-01 2.36252174e-02 -6.01266801e-01 4.64008212e-01
      -6.03130639e-01 7.42195427e-01 2.09643856e-01 -5.85790217e-01
      -1.37743258e+00 3.21526021e-01 1.67817026e-01 -3.92966896e-01
      7.33942807e-01 1.15711920e-01 -1.63534701e+00 -3.31293344e-01
      1.42371905e+00 -2.02054694e-01 -4.54441458e-01 2.99482256e-01
      -2.45295897e-01 7.66879857e-01 8.68379772e-02 -7.24403143e-01
      9.81892288e-01 -1.12849724e+00 -2.61665881e-01 -5.28518558e-01
      -1.77853334e+00 -3.26228499e-01 -3.14695978e+00 -1.28714252e+00
      -1.65674436e+00 -3.47768605e-01 -1.60700655e+00 -2.96252537e+00
      -7.50161648e-01 3.99149835e-01 1.83288908e+00 -4.43520355e+00
      -1.68329686e-01 3.17333412e+00 7.61985371e-04 9.20102715e-01
      4.24986213e-01 4.86711770e-01 -1.67144954e+00 -3.14520925e-01
      -1.35006583e+00 -1.30889833e+00 2.59254962e-01 -6.18387282e-01
      5.67284107e-01 -2.61008000e+00 4.46186513e-02 -3.21126008e+00
      1.74015141e+00 1.01088393e+00 2.49035269e-01 -5.19145906e-01
      -2.14989233e+00 -2.25444168e-01 -1.19926643e+00 -7.71499574e-01
      -4.70687056e+00 -8.38959098e-01 -2.24993944e+00 6.86977208e-01
      -4.15640497e+00 -4.36970711e+00 8.52115080e-02 -3.02514791e+00
      -1.21320391e+00 -1.99497855e+00 -2.78709960e+00 -6.40092790e-01
      3.83528113e-01 2.88733077e+00 7.29662359e-01 -4.15861666e-01
      1.42277228e-02 -3.23694181e+00 -5.00719166e+00 5.78215420e-01
      -7.25943267e-01 -1.17022935e-02 8.27754200e-01 8.67376924e-02
      -1.98822963e+00 1.78793997e-01 5.52088767e-02 -5.99648571e-03
      1.90576240e-01 3.38684171e-02 -1.50688291e+00 3.78259867e-01
      -9.95213926e-01 -2.00219870e+00 -1.24622548e+00 3.76249224e-01
      7.49770582e-01 -8.17300892e+00 -1.47390530e-01 -1.91547796e-01
      -2.87700915e+00 -8.48941207e-01 -1.07258134e-01 4.92461681e-01
      -1.84840250e+00 -5.91898024e-01 -6.90355182e-01 -1.73833624e-01
      -3.49730968e-01 -1.27369452e+00 -2.58946475e-02 5.84727526e-02
      7.12510884e-01 1.38384748e+00 -4.21167898e+00 -4.71966362e+00
      -4.34127855e+00 -5.61011791e-01 -2.56396264e-01 2.40353197e-01
      1.17765926e-01 -2.73555666e-01 1.46567190e+00 -9.47607815e-01
      -1.23022258e+00 -3.48100990e-01 2.93765128e-01 -1.98547840e+00
      -1.73648500e+00 -2.00486943e-01 -5.57374489e-03 -1.29879212e+00
      2.31532156e-01 7.12875724e-01 5.89374304e-02 -2.26893142e-01
      -4.06441718e-01 3.96396130e-01 -3.97938192e-01 6.88203394e-01
      2.16338173e-01 5.30309618e-01 -3.18850207e+00 6.23784773e-02
      -4.99011755e+00 4.36120749e-01 -5.57833314e-01 -4.59657145e+00
      -3.69574390e-02 -3.29582024e+00 1.92744330e-01 -2.03874946e+00
      7.48746395e-01 4.90906805e-01 -3.83281541e+00 2.17820004e-01
      -5.53434014e-01 -3.51187992e+00 -5.77381516e+00 -4.60715294e-01
      -1.74783790e+00 2.13560611e-01 -1.63670862e+00 4.60994899e-01
      -1.56886292e+00 -4.53371644e-01 4.98900950e-01 -8.27577934e-02
      1.89683065e-01 -3.15687251e+00 -7.25312412e-01 -1.29784310e+00</_></support_vectors>
  <decision_functions>
    <_>
      <sv_count>1</sv_count>
      <rho>-7.2469452081861918e-01</rho>
      <alpha>
        1.</alpha>
      <index>
        0</index></_></decision_functions></my_svm>
</opencv_storage>
